svm_type c_svc
kernel_type rbf
gamma 0.0883883
nr_class 2
total_sv 435
rho 0.0483401
label -1 1
nr_sv 210 225
SV
26.90868528811887 1:-1 2:-1 3:-1 4:1 5:0.33333333 6:1 7:-1 8:-1 9:0 10:1 11:-1 12:1 13:-1 14:-1 15:0.4 16:1 17:-1 
26.90868528811887 1:-1 2:-1 3:-1 4:-0.73333333 5:-0.46666667 6:1 7:-1 8:-1 9:-0.8 10:1 11:1 12:-1 13:-1 14:1 15:-0.6 16:-1 17:-1 
26.90868528811887 1:-1 2:-1 3:-1 4:1 5:1 6:1 7:-1 8:-1 9:-0.8 10:1 11:1 12:1 13:-1 14:-1 15:1 16:1 17:-1 
14.66035840131923 1:-1 2:1 3:-1 4:0.2 5:-0.86666667 6:1 7:-1 8:-1 9:0.6 10:-1 11:-1 12:-1 13:-1 14:-1 15:-0.8 16:-1 17:-1 
26.90868528811887 1:-1 2:-1 3:-1 4:1 5:-0.73333333 6:-1 7:-1 8:1 9:-0.6 10:-1 11:-1 12:-1 13:-1 14:1 15:-0.8 16:-1 17:-1 
26.90868528811887 1:-1 2:-1 3:-1 4:1 5:1 6:1 7:-1 8:-1 9:-0.4 10:-1 11:-1 12:-1 13:-1 14:-1 15:-0.8 16:-1 17:-1 
26.90868528811887 1:-1 2:-1 3:-1 4:0.73333333 5:1 6:-1 7:1 8:-1 9:-0.8 10:1 11:1 12:1 13:-1 14:-1 15:0.4 16:1 17:-1 
26.90868528811887 1:-1 2:-1 3:-1 4:1 5:1 6:1 7:-1 8:-1 9:-0.8 10:1 11:1 12:1 13:-1 14:-1 15:1 16:1 17:-1 
26.90868528811887 1:-1 2:-1 3:-1 4:0.73333333 5:1 6:-1 7:1 8:-1 9:-0.8 10:1 11:1 12:1 13:-1 14:-1 15:1 16:1 17:-1 
26.46317462863857 1:-1 2:-1 3:-1 4:1 5:0.73333333 6:1 7:-1 8:-1 9:-0.8 10:1 11:1 12:1 13:-1 14:-1 15:0.2 16:1 17:-1 
20.47663080421262 1:-1 2:-1 3:1 4:-0.33333333 5:-0.86666667 6:1 7:-1 8:-1 9:0.4 10:-1 11:-1 12:-1 13:-1 14:-1 15:-0.8 16:-1 17:-1 
5.715339831022115 1:-1 2:-1 3:-1 4:0.86666667 5:1 6:-1 7:-1 8:1 9:-0.4 10:-1 11:-1 12:-1 13:-1 14:1 15:-0.4 16:-1 17:-1 
26.90868528811887 1:-1 2:-1 3:-1 4:-0.86666667 5:1 6:-1 7:-1 8:-1 9:-0.8 10:-1 11:-1 12:1 13:-1 14:-1 15:1 16:1 17:-1 
15.86991666362306 1:-1 2:-1 3:-1 4:1 5:-0.46666667 6:1 7:-1 8:-1 9:-0.8 10:1 11:1 12:-1 13:-1 14:1 15:-0.2 16:-1 17:-1 
0.7212489856670917 1:-1 2:-1 3:-1 4:0.33333333 5:1 6:1 7:-1 8:-1 9:-0.4 10:1 11:1 12:1 13:-1 14:-1 15:0.8 16:1 17:1 
24.37613531899558 1:-1 2:-1 3:-1 4:1 5:0.73333333 6:1 7:-1 8:-1 9:-0.8 10:1 11:1 12:1 13:-1 14:-1 15:0.2 16:1 17:-1 
26.90868528811887 1:-1 2:-1 3:-1 4:1 5:0.6 6:-1 7:-1 8:1 9:-0.8 10:-1 11:-1 12:1 13:-1 14:-1 15:0.6 16:1 17:-1 
26.90868528811887 1:-1 2:-1 3:-1 4:-0.6 5:1 6:-1 7:-1 8:1 9:-0.8 10:-1 11:-1 12:1 13:-1 14:-1 15:0.2 16:1 17:-1 
23.73646089563597 1:-1 2:-1 3:-1 4:-0.6 5:1 6:-1 7:-1 8:1 9:-0.8 10:-1 11:-1 12:1 13:-1 14:-1 15:1 16:1 17:-1 
26.90868528811887 1:-1 2:-1 3:-1 4:1 5:1 6:1 7:-1 8:-1 9:-0.8 10:1 11:1 12:1 13:-1 14:-1 15:1 16:1 17:-1 
23.51933719349676 1:-1 2:-1 3:-1 4:0.73333333 5:1 6:1 7:-1 8:-1 9:-0.8 10:1 11:1 12:1 13:-1 14:-1 15:0 16:1 17:-1 
26.90868528811887 1:-1 2:-1 3:-1 4:1 5:1 6:1 7:-1 8:-1 9:-0.8 10:1 11:1 12:1 13:-1 14:-1 15:1 16:1 17:-1 
16.42212337564662 1:-1 2:-1 3:-1 4:-0.6 5:-0.86666667 6:1 7:-1 8:-1 9:0.6 10:1 11:1 12:-1 13:-1 14:-1 15:-0.8 16:-1 17:-1 
10.70707677119893 1:-1 2:-1 3:-1 4:1 5:1 6:-1 7:-1 8:1 9:-0.6 10:-1 11:-1 12:-1 13:-1 14:1 15:-0.6 16:-1 17:-1 
26.90868528811887 1:-1 2:-1 3:-1 4:-0.73333333 5:1 6:1 7:-1 8:-1 9:-0.8 10:1 11:1 12:1 13:-1 14:-1 15:-0.2 16:1 17:-1 
21.34740324654569 1:-1 2:-1 3:-1 4:-0.73333333 5:0.73333333 6:1 7:-1 8:-1 9:-0.8 10:-1 11:-1 12:1 13:-1 14:-1 15:0.4 16:1 17:-1 
22.16678653035159 1:-1 2:-1 3:-1 4:-0.73333333 5:1 6:1 7:-1 8:-1 9:-0.8 10:1 11:1 12:1 13:-1 14:-1 15:0.2 16:1 17:-1 
9.454749538621536 1:1 2:-1 3:-1 4:0.2 5:-0.86666667 6:1 7:-1 8:-1 9:0.8 10:-1 11:-1 12:-1 13:-1 14:-1 15:-0.8 16:-1 17:-1 
7.199347478063546 1:-1 2:-1 3:-1 4:-0.73333333 5:-0.46666667 6:1 7:-1 8:-1 9:-0.8 10:1 11:1 12:-1 13:-1 14:1 15:-0.6 16:-1 17:-1 
25.94387613584383 1:-1 2:-1 3:-1 4:-0.2 5:1 6:1 7:-1 8:-1 9:-0.8 10:-1 11:-1 12:1 13:-1 14:-1 15:-0.4 16:1 17:-1 
10.86113362323193 1:-1 2:-1 3:-1 4:1 5:-0.86666667 6:-1 7:-1 8:1 9:-0.2 10:-1 11:-1 12:-1 13:-1 14:-1 15:-0.8 16:-1 17:-1 
26.90868528811887 1:-1 2:-1 3:-1 4:1 5:1 6:-1 7:-1 8:1 9:-0.8 10:-1 11:-1 12:1 13:-1 14:-1 15:-0.2 16:1 17:-1 
26.90868528811887 1:-1 2:-1 3:-1 4:-0.73333333 5:1 6:-1 7:-1 8:1 9:-0.8 10:-1 11:-1 12:1 13:-1 14:-1 15:-0.6 16:1 17:-1 
12.28114007468616 1:-1 2:-1 3:-1 4:1 5:-0.73333333 6:-1 7:-1 8:1 9:-0.6 10:-1 11:-1 12:-1 13:-1 14:1 15:-0.8 16:-1 17:-1 
21.3762321524461 1:-1 2:-1 3:-1 4:-0.73333333 5:1 6:1 7:-1 8:-1 9:-0.4 10:-1 11:-1 12:-1 13:-1 14:-1 15:-0.8 16:-1 17:-1 
22.58599456521738 1:-1 2:-1 3:-1 4:-0.2 5:1 6:1 7:-1 8:-1 9:-0.8 10:-1 11:-1 12:1 13:-1 14:-1 15:-0.4 16:1 17:-1 
11.70430012596923 1:-1 2:-1 3:1 4:0.066666667 5:-0.86666667 6:1 7:-1 8:-1 9:1 10:1 11:-1 12:-1 13:-1 14:-1 15:-0.8 16:-1 17:-1 
26.90868528811887 1:-1 2:-1 3:-1 4:0.46666667 5:1 6:1 7:-1 8:-1 9:-0.8 10:1 11:1 12:1 13:-1 14:-1 15:-0.2 16:1 17:-1 
26.23566094198175 1:-1 2:-1 3:-1 4:1 5:-0.86666667 6:-1 7:-1 8:-1 9:-0.8 10:-1 11:-1 12:-1 13:-1 14:-1 15:-0.8 16:-1 17:-1 
26.90868528811887 1:-1 2:-1 3:-1 4:-0.066666667 5:1 6:-1 7:-1 8:1 9:-0.8 10:-1 11:-1 12:1 13:-1 14:-1 15:-0.4 16:1 17:-1 
26.90868528811887 1:-1 2:-1 3:-1 4:1 5:-0.33333333 6:-1 7:-1 8:1 9:-0.8 10:-1 11:-1 12:1 13:-1 14:-1 15:-0.8 16:1 17:1 
22.86473944101702 1:-1 2:-1 3:-1 4:-0.6 5:1 6:-1 7:-1 8:1 9:-0.8 10:-1 11:-1 12:1 13:-1 14:-1 15:-0.8 16:1 17:1 
8.266799190391467 1:-1 2:-1 3:-1 4:1 5:1 6:1 7:-1 8:-1 9:-0.4 10:-1 11:-1 12:-1 13:-1 14:-1 15:-0.8 16:-1 17:-1 
26.90868528811887 1:-1 2:-1 3:1 4:1 5:-0.86666667 6:1 7:-1 8:-1 9:1 10:-1 11:-1 12:-1 13:-1 14:-1 15:-0.8 16:-1 17:-1 
6.354831752224454 1:-1 2:-1 3:-1 4:0.73333333 5:0.066666667 6:-1 7:1 8:-1 9:-0.2 10:1 11:-1 12:-1 13:-1 14:-1 15:-0.8 16:-1 17:-1 
6.373988692757654 1:-1 2:-1 3:-1 4:-0.73333333 5:1 6:1 7:-1 8:-1 9:-0.8 10:1 11:1 12:1 13:-1 14:-1 15:-0.4 16:1 17:1 
26.90868528811887 1:-1 2:-1 3:-1 4:1 5:0.46666667 6:1 7:-1 8:-1 9:-0.8 10:1 11:1 12:1 13:-1 14:-1 15:-0.2 16:1 17:-1 
20.81108722734865 1:-1 2:-1 3:-1 4:1 5:1 6:1 7:-1 8:-1 9:-0.8 10:1 11:1 12:1 13:-1 14:-1 15:1 16:1 17:-1 
26.90868528811887 1:-1 2:-1 3:-1 4:-0.066666667 5:1 6:1 7:-1 8:-1 9:-0.8 10:1 11:1 12:1 13:-1 14:-1 15:-0.4 16:1 17:-1 
6.030601905158789 1:-1 2:-1 3:-1 4:-0.73333333 5:0.86666667 6:1 7:-1 8:-1 9:-0.4 10:-1 11:-1 12:-1 13:-1 14:-1 15:-0.8 16:-1 17:-1 
26.90868528811887 1:-1 2:-1 3:-1 4:-0.46666667 5:1 6:1 7:-1 8:-1 9:-0.6 10:-1 11:-1 12:1 13:-1 14:-1 15:0.4 16:1 17:-1 
8.85610933807196 1:-1 2:-1 3:-1 4:1 5:1 6:1 7:-1 8:-1 9:-0.8 10:1 11:1 12:1 13:-1 14:-1 15:1 16:1 17:-1 
26.90868528811887 1:-1 2:-1 3:-1 4:-0.46666667 5:0.46666667 6:1 7:-1 8:-1 9:-0.2 10:-1 11:-1 12:-1 13:1 14:-1 15:-0.4 16:1 17:1 
4.453880191998263 1:-1 2:-1 3:-1 4:-0.2 5:-0.73333333 6:-1 7:-1 8:1 9:-0.4 10:-1 11:-1 12:-1 13:-1 14:1 15:-0.4 16:-1 17:-1 
26.90868528811887 1:-1 2:-1 3:-1 4:1 5:1 6:1 7:-1 8:-1 9:-0.2 10:-1 11:-1 12:-1 13:-1 14:-1 15:-0.8 16:-1 17:-1 
26.90868528811887 1:-1 2:-1 3:-1 4:-0.73333333 5:1 6:1 7:-1 8:-1 9:-0.8 10:1 11:1 12:1 13:-1 14:-1 15:-0.2 16:1 17:-1 
7.89378277932895 1:-1 2:-1 3:-1 4:1 5:-0.86666667 6:-1 7:-1 8:-1 9:-0.8 10:-1 11:-1 12:-1 13:-1 14:-1 15:-0.8 16:-1 17:-1 
1.012087082618612 1:-1 2:-1 3:-1 4:-0.86666667 5:-0.6 6:-1 7:-1 8:-1 9:-0.8 10:-1 11:-1 12:1 13:-1 14:-1 15:-0.8 16:-1 17:-1 
1.175808055229582 1:-1 2:1 3:-1 4:-0.066666667 5:-0.2 6:1 7:-1 8:-1 9:-0.4 10:-1 11:-1 12:1 13:-1 14:-1 15:1 16:-1 17:-1 
26.90868528811887 1:-1 2:-1 3:-1 4:-0.73333333 5:-0.73333333 6:1 7:-1 8:-1 9:-0.8 10:-1 11:-1 12:1 13:-1 14:-1 15:-0.8 16:1 17:1 
26.90868528811887 1:-1 2:-1 3:-1 4:1 5:1 6:1 7:-1 8:-1 9:-0.8 10:1 11:1 12:1 13:-1 14:-1 15:0.2 16:1 17:-1 
26.90868528811887 1:-1 2:-1 3:-1 4:1 5:1 6:1 7:-1 8:-1 9:-0.8 10:1 11:1 12:1 13:-1 14:-1 15:0 16:1 17:-1 
26.90868528811887 1:-1 2:-1 3:-1 4:-0.6 5:1 6:1 7:-1 8:-1 9:-0.8 10:1 11:1 12:1 13:-1 14:-1 15:0 16:1 17:-1 
3.519064163562922 1:-1 2:-1 3:-1 4:1 5:1 6:1 7:-1 8:-1 9:-0.2 10:1 11:-1 12:1 13:-1 14:-1 15:1 16:1 17:-1 
3.78312159562068 1:1 2:-1 3:-1 4:-0.6 5:-0.86666667 6:1 7:-1 8:-1 9:0.8 10:-1 11:-1 12:-1 13:-1 14:-1 15:-0.8 16:-1 17:-1 
26.90868528811887 1:-1 2:-1 3:-1 4:0.066666667 5:1 6:1 7:-1 8:-1 9:-0.8 10:1 11:1 12:1 13:-1 14:-1 15:-0.4 16:1 17:-1 
26.90868528811887 1:-1 2:-1 3:-1 4:-0.46666667 5:1 6:1 7:-1 8:-1 9:-0.6 10:-1 11:-1 12:1 13:-1 14:-1 15:1 16:1 17:-1 
9.368777692748397 1:1 2:-1 3:-1 4:1 5:-0.86666667 6:1 7:-1 8:-1 9:0.2 10:-1 11:-1 12:-1 13:-1 14:-1 15:-0.8 16:-1 17:-1 
26.90868528811887 1:-1 2:1 3:-1 4:1 5:1 6:1 7:-1 8:-1 9:-0.2 10:1 11:-1 12:1 13:-1 14:-1 15:1 16:1 17:-1 
0.7155802405109658 1:-1 2:-1 3:-1 4:0.33333333 5:-0.73333333 6:-1 7:-1 8:1 9:-0.6 10:-1 11:-1 12:-1 13:-1 14:1 15:-0.8 16:-1 17:-1 
1.741235211551956 1:-1 2:-1 3:-1 4:1 5:-0.73333333 6:-1 7:1 8:-1 9:-0.8 10:1 11:1 12:1 13:-1 14:-1 15:-0.8 16:1 17:1 
26.90868528811887 1:-1 2:-1 3:-1 4:1 5:1 6:-1 7:-1 8:1 9:-0.8 10:-1 11:-1 12:1 13:-1 14:-1 15:-0.6 16:1 17:-1 
26.90868528811887 1:-1 2:-1 3:-1 4:-0.73333333 5:0.86666667 6:-1 7:-1 8:1 9:-0.8 10:-1 11:-1 12:1 13:-1 14:-1 15:-0.6 16:1 17:-1 
26.90868528811887 1:-1 2:1 3:-1 4:-0.33333333 5:1 6:1 7:-1 8:-1 9:-0.4 10:-1 11:-1 12:-1 13:-1 14:-1 15:-0.8 16:-1 17:-1 
7.408282636659057 1:-1 2:-1 3:-1 4:-0.73333333 5:-0.73333333 6:-1 7:1 8:-1 9:-0.8 10:-1 11:-1 12:1 13:-1 14:-1 15:-0.8 16:1 17:1 
26.90868528811887 1:-1 2:-1 3:-1 4:1 5:0.2 6:-1 7:-1 8:1 9:-0.8 10:-1 11:-1 12:1 13:-1 14:-1 15:-0.2 16:1 17:-1 
7.198765448615089 1:-1 2:-1 3:-1 4:-0.73333333 5:1 6:-1 7:-1 8:1 9:-0.8 10:-1 11:-1 12:1 13:-1 14:-1 15:-0.2 16:1 17:-1 
0.002026781510712982 1:-1 2:-1 3:-1 4:1 5:-0.73333333 6:-1 7:1 8:-1 9:-0.8 10:1 11:1 12:1 13:-1 14:-1 15:-0.8 16:1 17:1 
3.866828875877193 1:-1 2:-1 3:1 4:-0.33333333 5:-0.86666667 6:1 7:-1 8:-1 9:0.8 10:-1 11:-1 12:-1 13:-1 14:-1 15:-0.8 16:-1 17:-1 
26.90868528811887 1:-1 2:-1 3:-1 4:1 5:1 6:1 7:-1 8:-1 9:-0.8 10:1 11:1 12:1 13:-1 14:-1 15:0.2 16:1 17:-1 
22.5557893850596 1:-1 2:-1 3:-1 4:1 5:-0.73333333 6:-1 7:-1 8:1 9:-0.6 10:-1 11:-1 12:-1 13:-1 14:1 15:-0.8 16:-1 17:-1 
6.554787115756752 1:-1 2:-1 3:-1 4:-0.46666667 5:-0.46666667 6:1 7:-1 8:-1 9:0 10:1 11:-1 12:1 13:-1 14:-1 15:0.6 16:1 17:-1 
26.90868528811887 1:-1 2:-1 3:-1 4:-0.33333333 5:1 6:1 7:-1 8:-1 9:-0.8 10:-1 11:-1 12:1 13:-1 14:-1 15:-0.4 16:1 17:-1 
26.90868528811887 1:-1 2:-1 3:-1 4:0.73333333 5:1 6:1 7:-1 8:-1 9:-0.8 10:1 11:1 12:1 13:-1 14:-1 15:-0.8 16:1 17:1 
26.90868528811887 1:-1 2:-1 3:-1 4:-0.33333333 5:1 6:1 7:-1 8:-1 9:-0.8 10:-1 11:-1 12:1 13:-1 14:-1 15:-0.8 16:1 17:1 
4.609911955655454 1:1 2:-1 3:-1 4:0.6 5:-0.86666667 6:1 7:-1 8:-1 9:-0.2 10:1 11:-1 12:-1 13:-1 14:-1 15:-0.8 16:-1 17:-1 
12.51922218381652 1:-1 2:-1 3:1 4:1 5:-0.86666667 6:1 7:-1 8:-1 9:0.8 10:-1 11:-1 12:-1 13:-1 14:-1 15:-0.8 16:-1 17:-1 
26.90868528811887 1:-1 2:-1 3:-1 4:-0.86666667 5:1 6:-1 7:-1 8:-1 9:-0.8 10:-1 11:-1 12:-1 13:-1 14:-1 15:-0.8 16:-1 17:-1 
3.188506678987668 1:-1 2:-1 3:1 4:1 5:-0.86666667 6:1 7:-1 8:-1 9:1 10:-1 11:-1 12:-1 13:-1 14:-1 15:-0.8 16:-1 17:-1 
26.90868528811887 1:-1 2:1 3:-1 4:1 5:1 6:1 7:-1 8:-1 9:-0.8 10:-1 11:-1 12:-1 13:1 14:-1 15:-0.8 16:1 17:1 
26.58072946710993 1:-1 2:-1 3:-1 4:1 5:-0.6 6:1 7:-1 8:-1 9:0.4 10:-1 11:-1 12:-1 13:1 14:-1 15:-0.8 16:1 17:1 
26.90868528811887 1:-1 2:-1 3:-1 4:1 5:-0.73333333 6:1 7:-1 8:-1 9:-0.6 10:1 11:1 12:1 13:-1 14:-1 15:-0.6 16:1 17:1 
26.90868528811887 1:-1 2:-1 3:-1 4:1 5:1 6:-1 7:-1 8:1 9:-0.6 10:-1 11:-1 12:-1 13:-1 14:1 15:-0.8 16:-1 17:-1 
26.90868528811887 1:-1 2:-1 3:-1 4:-0.73333333 5:1 6:1 7:-1 8:-1 9:-0.6 10:1 11:1 12:1 13:-1 14:-1 15:0 16:1 17:-1 
26.90868528811887 1:-1 2:-1 3:-1 4:1 5:1 6:-1 7:-1 8:1 9:-0.8 10:-1 11:-1 12:1 13:-1 14:-1 15:1 16:1 17:-1 
26.90868528811887 1:-1 2:-1 3:-1 4:1 5:0.73333333 6:1 7:-1 8:-1 9:0.4 10:-1 11:-1 12:1 13:-1 14:-1 15:-0.2 16:-1 17:-1 
9.627181042229141 1:-1 2:-1 3:-1 4:-0.33333333 5:1 6:1 7:-1 8:-1 9:0.4 10:-1 11:-1 12:1 13:-1 14:-1 15:-0.2 16:-1 17:-1 
8.544544661233996 1:-1 2:-1 3:-1 4:1 5:1 6:1 7:-1 8:-1 9:0.4 10:-1 11:-1 12:1 13:-1 14:-1 15:-0.2 16:-1 17:-1 
26.90868528811887 1:-1 2:-1 3:-1 4:-0.066666667 5:0.2 6:1 7:-1 8:-1 9:0.4 10:-1 11:-1 12:-1 13:1 14:-1 15:-0.4 16:1 17:1 
21.06560046797697 1:-1 2:-1 3:-1 4:0.2 5:1 6:-1 7:1 8:-1 9:-0.6 10:-1 11:-1 12:-1 13:-1 14:-1 15:-0.8 16:-1 17:-1 
26.90868528811887 1:-1 2:-1 3:-1 4:-0.73333333 5:1 6:1 7:-1 8:-1 9:-0.8 10:1 11:1 12:1 13:-1 14:-1 15:0 16:1 17:-1 
26.90868528811887 1:-1 2:-1 3:-1 4:-0.73333333 5:1 6:1 7:-1 8:-1 9:-0.8 10:-1 11:-1 12:1 13:-1 14:-1 15:0.2 16:1 17:-1 
26.90868528811887 1:-1 2:-1 3:-1 4:-0.73333333 5:0.86666667 6:1 7:-1 8:-1 9:-0.8 10:-1 11:-1 12:1 13:-1 14:-1 15:0.2 16:1 17:-1 
26.01340109110148 1:-1 2:-1 3:-1 4:-0.73333333 5:1 6:-1 7:1 8:-1 9:-0.8 10:1 11:1 12:-1 13:1 14:-1 15:-0.8 16:1 17:1 
8.054993112291824 1:-1 2:-1 3:-1 4:1 5:0.066666667 6:-1 7:1 8:-1 9:-0.8 10:1 11:1 12:-1 13:1 14:-1 15:-0.6 16:1 17:-1 
26.90868528811887 1:-1 2:-1 3:-1 4:1 5:-0.46666667 6:-1 7:-1 8:1 9:-0.4 10:-1 11:-1 12:-1 13:-1 14:1 15:-0.8 16:-1 17:-1 
26.90868528811887 1:-1 2:-1 3:-1 4:-0.46666667 5:0.33333333 6:-1 7:-1 8:1 9:-0.4 10:-1 11:-1 12:-1 13:-1 14:1 15:-0.8 16:-1 17:-1 
26.90868528811887 1:-1 2:-1 3:-1 4:1 5:-0.33333333 6:-1 7:-1 8:1 9:-0.4 10:-1 11:-1 12:-1 13:-1 14:1 15:-0.8 16:-1 17:-1 
26.90868528811887 1:-1 2:1 3:-1 4:1 5:-0.6 6:1 7:-1 8:-1 9:-0.8 10:-1 11:-1 12:-1 13:1 14:-1 15:-0.8 16:1 17:1 
21.32296772803592 1:1 2:-1 3:-1 4:-0.73333333 5:1 6:1 7:-1 8:-1 9:-0.8 10:-1 11:-1 12:-1 13:-1 14:-1 15:-0.8 16:-1 17:-1 
10.11722100443406 1:-1 2:-1 3:-1 4:1 5:-0.73333333 6:-1 7:1 8:-1 9:-0.8 10:1 11:1 12:-1 13:1 14:-1 15:-0.8 16:1 17:1 
0.9901634455520527 1:-1 2:-1 3:-1 4:-0.73333333 5:1 6:-1 7:1 8:-1 9:-0.8 10:1 11:1 12:-1 13:-1 14:-1 15:-0.8 16:-1 17:-1 
26.90868528811887 1:-1 2:1 3:-1 4:0.73333333 5:-0.86666667 6:1 7:-1 8:-1 9:0.8 10:-1 11:-1 12:-1 13:-1 14:-1 15:-0.8 16:-1 17:-1 
16.41157711370863 1:-1 2:-1 3:1 4:1 5:-0.86666667 6:1 7:-1 8:-1 9:0.8 10:-1 11:-1 12:-1 13:-1 14:-1 15:-0.8 16:-1 17:-1 
26.90868528811887 1:-1 2:1 3:-1 4:0.46666667 5:1 6:1 7:-1 8:-1 9:-0.8 10:-1 11:-1 12:-1 13:1 14:-1 15:-0.8 16:1 17:1 
26.90868528811887 1:-1 2:-1 3:-1 4:-0.73333333 5:1 6:-1 7:-1 8:1 9:-0.8 10:-1 11:-1 12:-1 13:1 14:-1 15:-0.8 16:1 17:1 
26.90868528811887 1:-1 2:1 3:-1 4:0.46666667 5:0.73333333 6:1 7:-1 8:-1 9:-0.8 10:-1 11:-1 12:-1 13:1 14:-1 15:-0.8 16:1 17:1 
26.90868528811887 1:-1 2:1 3:-1 4:1 5:1 6:1 7:-1 8:-1 9:-0.8 10:-1 11:-1 12:-1 13:1 14:-1 15:-0.8 16:1 17:1 
26.90868528811887 1:-1 2:-1 3:-1 4:-0.73333333 5:1 6:-1 7:-1 8:1 9:-0.8 10:-1 11:-1 12:-1 13:1 14:-1 15:-0.8 16:1 17:1 
26.90868528811887 1:-1 2:-1 3:-1 4:1 5:0.73333333 6:1 7:-1 8:-1 9:-0.8 10:1 11:1 12:1 13:-1 14:-1 15:0 16:1 17:-1 
26.90868528811887 1:-1 2:-1 3:-1 4:0.6 5:1 6:-1 7:1 8:-1 9:-0.8 10:1 11:1 12:1 13:-1 14:-1 15:0.2 16:1 17:-1 
19.64499859661627 1:-1 2:-1 3:-1 4:-0.73333333 5:-0.73333333 6:1 7:-1 8:-1 9:-0.8 10:1 11:1 12:1 13:-1 14:-1 15:1 16:1 17:-1 
26.90868528811887 1:-1 2:-1 3:-1 4:1 5:1 6:-1 7:-1 8:1 9:-0.4 10:-1 11:-1 12:-1 13:-1 14:1 15:-0.4 16:-1 17:-1 
13.33835186805525 1:-1 2:-1 3:-1 4:-0.73333333 5:1 6:-1 7:1 8:-1 9:-0.8 10:1 11:1 12:-1 13:1 14:-1 15:-0.8 16:1 17:1 
26.90868528811887 1:-1 2:-1 3:-1 4:-0.6 5:1 6:1 7:-1 8:-1 9:-0.8 10:-1 11:-1 12:-1 13:1 14:-1 15:-0.8 16:1 17:1 
22.6970861280599 1:-1 2:-1 3:-1 4:-0.73333333 5:1 6:1 7:-1 8:-1 9:-0.8 10:1 11:1 12:-1 13:1 14:-1 15:-0.8 16:1 17:1 
14.40004913556096 1:-1 2:-1 3:-1 4:-0.86666667 5:-0.6 6:-1 7:-1 8:-1 9:-0.8 10:-1 11:-1 12:-1 13:-1 14:1 15:-0.4 16:-1 17:-1 
1.100819679340459 1:-1 2:-1 3:-1 4:1 5:-0.73333333 6:-1 7:1 8:-1 9:-0.8 10:1 11:1 12:1 13:-1 14:-1 15:-0.8 16:-1 17:-1 
26.90868528811887 1:-1 2:-1 3:-1 4:-0.73333333 5:1 6:1 7:-1 8:-1 9:-0.8 10:-1 11:-1 12:-1 13:1 14:-1 15:-0.8 16:1 17:1 
3.923343142636248 1:-1 2:-1 3:-1 4:0.6 5:1 6:1 7:-1 8:-1 9:-0.8 10:-1 11:-1 12:-1 13:1 14:-1 15:-0.8 16:1 17:1 
26.90868528811887 1:-1 2:-1 3:-1 4:-0.73333333 5:1 6:1 7:-1 8:-1 9:-0.8 10:-1 11:-1 12:-1 13:1 14:-1 15:-0.8 16:1 17:1 
26.90868528811887 1:-1 2:-1 3:-1 4:-0.86666667 5:1 6:-1 7:-1 8:-1 9:-0.8 10:-1 11:-1 12:-1 13:-1 14:-1 15:-0.8 16:-1 17:-1 
0.3223553814285953 1:-1 2:-1 3:-1 4:-0.86666667 5:1 6:-1 7:-1 8:-1 9:-0.8 10:-1 11:-1 12:-1 13:-1 14:1 15:-0.6 16:-1 17:-1 
1.830303111017483 1:-1 2:-1 3:-1 4:-0.73333333 5:1 6:-1 7:1 8:-1 9:-0.8 10:1 11:1 12:1 13:-1 14:-1 15:-0.8 16:-1 17:-1 
4.293455387807512 1:1 2:-1 3:-1 4:1 5:1 6:1 7:-1 8:-1 9:-0.4 10:-1 11:-1 12:-1 13:1 14:-1 15:-0.4 16:-1 17:-1 
2.249539244840456 1:-1 2:-1 3:-1 4:-0.6 5:1 6:1 7:-1 8:-1 9:-0.8 10:-1 11:-1 12:-1 13:1 14:-1 15:-0.8 16:1 17:1 
9.749570145733554 1:-1 2:-1 3:-1 4:-0.73333333 5:1 6:1 7:-1 8:-1 9:-0.8 10:1 11:1 12:-1 13:1 14:-1 15:-0.8 16:1 17:1 
0.5738729085382468 1:-1 2:1 3:-1 4:-0.6 5:1 6:1 7:-1 8:-1 9:-0.8 10:-1 11:-1 12:1 13:-1 14:-1 15:0.8 16:1 17:-1 
10.76346818648404 1:-1 2:-1 3:-1 4:-0.6 5:1 6:1 7:-1 8:-1 9:-0.8 10:-1 11:-1 12:-1 13:1 14:-1 15:-0.8 16:1 17:1 
2.86124022623526 1:-1 2:-1 3:-1 4:-0.6 5:0.73333333 6:-1 7:1 8:-1 9:-0.8 10:-1 11:-1 12:-1 13:-1 14:-1 15:-0.8 16:-1 17:-1 
1.424567330825579 1:-1 2:-1 3:-1 4:-0.6 5:0.6 6:-1 7:1 8:-1 9:-0.8 10:-1 11:-1 12:-1 13:-1 14:-1 15:-0.8 16:-1 17:-1 
1.670353385109067 1:-1 2:-1 3:-1 4:1 5:1 6:-1 7:1 8:-1 9:-0.8 10:-1 11:-1 12:-1 13:-1 14:1 15:-0.6 16:-1 17:-1 
26.90868528811887 1:-1 2:-1 3:-1 4:-0.73333333 5:1 6:1 7:-1 8:-1 9:-0.8 10:-1 11:-1 12:-1 13:1 14:-1 15:-0.8 16:1 17:1 
0.9596295188685297 1:-1 2:-1 3:-1 4:-0.73333333 5:1 6:-1 7:1 8:-1 9:-0.8 10:1 11:1 12:1 13:-1 14:-1 15:-0.8 16:-1 17:-1 
26.90868528811887 1:-1 2:-1 3:-1 4:1 5:0.73333333 6:1 7:-1 8:-1 9:-0.8 10:1 11:1 12:-1 13:1 14:-1 15:-0.8 16:1 17:1 
26.90868528811887 1:-1 2:-1 3:-1 4:0.73333333 5:0.86666667 6:1 7:-1 8:-1 9:-0.8 10:1 11:1 12:-1 13:1 14:-1 15:-0.8 16:1 17:1 
2.345064798843607 1:-1 2:-1 3:-1 4:1 5:-0.6 6:-1 7:1 8:-1 9:-0.8 10:1 11:1 12:1 13:-1 14:-1 15:0.2 16:1 17:-1 
8.426180136283392 1:-1 2:-1 3:-1 4:1 5:-0.73333333 6:-1 7:1 8:-1 9:-0.8 10:1 11:1 12:-1 13:1 14:-1 15:-0.8 16:1 17:1 
26.90868528811887 1:-1 2:-1 3:-1 4:1 5:1 6:-1 7:1 8:-1 9:-0.8 10:1 11:1 12:-1 13:1 14:-1 15:-0.8 16:1 17:1 
26.90868528811887 1:-1 2:-1 3:-1 4:-0.73333333 5:1 6:1 7:-1 8:-1 9:-0.8 10:-1 11:-1 12:-1 13:1 14:-1 15:-0.8 16:1 17:1 
26.90868528811887 1:-1 2:-1 3:-1 4:0.066666667 5:1 6:-1 7:1 8:-1 9:-0.8 10:1 11:1 12:-1 13:1 14:-1 15:-0.8 16:1 17:1 
26.90868528811887 1:-1 2:-1 3:-1 4:1 5:0.73333333 6:-1 7:1 8:-1 9:-0.8 10:1 11:1 12:-1 13:1 14:-1 15:-0.8 16:1 17:1 
0.4748991630824402 1:-1 2:-1 3:1 4:1 5:-0.86666667 6:1 7:-1 8:-1 9:1 10:-1 11:-1 12:-1 13:-1 14:-1 15:-0.8 16:-1 17:-1 
9.265064375573346 1:-1 2:-1 3:-1 4:-0.86666667 5:1 6:-1 7:-1 8:-1 9:-0.8 10:-1 11:-1 12:-1 13:-1 14:-1 15:-0.8 16:-1 17:-1 
3.980149676344364 1:-1 2:-1 3:-1 4:1 5:1 6:1 7:-1 8:-1 9:-0.4 10:-1 11:-1 12:-1 13:-1 14:-1 15:-0.8 16:-1 17:-1 
26.90868528811887 1:-1 2:-1 3:-1 4:0.86666667 5:1 6:1 7:-1 8:-1 9:-0.8 10:-1 11:-1 12:-1 13:1 14:-1 15:-0.8 16:1 17:1 
7.284961624942581 1:1 2:-1 3:-1 4:0.066666667 5:-0.86666667 6:1 7:-1 8:-1 9:1 10:-1 11:-1 12:-1 13:-1 14:-1 15:-0.8 16:-1 17:-1 
0.02167361742382785 1:-1 2:-1 3:-1 4:1 5:-0.86666667 6:-1 7:1 8:-1 9:-0.8 10:1 11:1 12:-1 13:-1 14:-1 15:-0.8 16:-1 17:-1 
26.90868528811887 1:1 2:-1 3:-1 4:1 5:-0.86666667 6:1 7:-1 8:-1 9:0.6 10:-1 11:-1 12:-1 13:-1 14:-1 15:-0.8 16:-1 17:-1 
23.10616184568551 1:1 2:-1 3:-1 4:1 5:-0.86666667 6:1 7:-1 8:-1 9:0.2 10:-1 11:-1 12:-1 13:-1 14:-1 15:-0.8 16:-1 17:-1 
19.03732810094301 1:-1 2:-1 3:-1 4:1 5:-0.86666667 6:-1 7:-1 8:-1 9:-0.8 10:-1 11:-1 12:-1 13:-1 14:-1 15:-0.8 16:-1 17:-1 
7.412325546855108 1:-1 2:-1 3:-1 4:1 5:1 6:-1 7:-1 8:1 9:-0.8 10:-1 11:-1 12:-1 13:1 14:-1 15:-0.6 16:1 17:-1 
24.71180837415405 1:-1 2:-1 3:-1 4:-0.73333333 5:1 6:-1 7:-1 8:1 9:-0.8 10:-1 11:-1 12:-1 13:1 14:-1 15:-0.8 16:1 17:1 
13.79229929620656 1:-1 2:-1 3:-1 4:-0.73333333 5:1 6:-1 7:-1 8:1 9:-0.8 10:-1 11:-1 12:-1 13:-1 14:-1 15:-0.8 16:-1 17:-1 
24.62565918268443 1:1 2:-1 3:-1 4:1 5:-0.86666667 6:1 7:-1 8:-1 9:0.8 10:-1 11:-1 12:-1 13:-1 14:-1 15:-0.8 16:-1 17:-1 
2.715185585029304 1:-1 2:-1 3:-1 4:-0.73333333 5:1 6:-1 7:-1 8:1 9:-0.8 10:-1 11:-1 12:-1 13:1 14:-1 15:-0.8 16:1 17:1 
7.664080595876124 1:-1 2:-1 3:-1 4:-0.066666667 5:1 6:1 7:-1 8:-1 9:-0.2 10:1 11:-1 12:-1 13:1 14:-1 15:-0.8 16:1 17:1 
26.90868528811887 1:-1 2:-1 3:-1 4:-0.86666667 5:0.066666667 6:-1 7:-1 8:-1 9:-0.8 10:-1 11:-1 12:-1 13:-1 14:1 15:-0.6 16:-1 17:-1 
26.90868528811887 1:-1 2:-1 3:-1 4:-0.86666667 5:1 6:-1 7:-1 8:-1 9:-0.8 10:-1 11:-1 12:-1 13:1 14:-1 15:-0.4 16:1 17:1 
26.90868528811887 1:-1 2:-1 3:-1 4:-0.86666667 5:1 6:-1 7:-1 8:-1 9:-0.8 10:-1 11:-1 12:-1 13:1 14:-1 15:-0.4 16:1 17:1 
26.90868528811887 1:-1 2:-1 3:-1 4:1 5:1 6:1 7:-1 8:-1 9:-0.8 10:1 11:1 12:-1 13:1 14:-1 15:-0.8 16:1 17:1 
0.04929386966042293 1:-1 2:-1 3:-1 4:1 5:1 6:1 7:-1 8:-1 9:-0.8 10:-1 11:-1 12:1 13:-1 14:-1 15:1 16:1 17:-1 
3.299539653950335 1:1 2:-1 3:-1 4:-0.33333333 5:-0.86666667 6:1 7:-1 8:-1 9:0.8 10:-1 11:-1 12:-1 13:-1 14:-1 15:-0.8 16:-1 17:-1 
26.90868528811887 1:-1 2:-1 3:-1 4:-0.86666667 5:0.6 6:-1 7:-1 8:-1 9:-0.8 10:-1 11:-1 12:-1 13:-1 14:-1 15:-0.8 16:-1 17:-1 
26.90868528811887 1:-1 2:-1 3:-1 4:-0.73333333 5:1 6:-1 7:1 8:-1 9:-0.8 10:1 11:1 12:1 13:-1 14:-1 15:0.2 16:1 17:-1 
0.2424680910968615 1:-1 2:-1 3:-1 4:-0.33333333 5:-0.46666667 6:-1 7:1 8:-1 9:-0.8 10:1 11:1 12:-1 13:-1 14:1 15:-0.2 16:-1 17:-1 
26.90868528811887 1:-1 2:-1 3:-1 4:1 5:0.73333333 6:-1 7:1 8:-1 9:0.4 10:1 11:-1 12:-1 13:-1 14:-1 15:-0.8 16:-1 17:-1 
4.659462058940472 1:-1 2:-1 3:-1 4:0.73333333 5:1 6:-1 7:1 8:-1 9:0.4 10:-1 11:-1 12:-1 13:-1 14:-1 15:-0.8 16:-1 17:-1 
19.36571000337343 1:-1 2:-1 3:-1 4:0.33333333 5:1 6:-1 7:1 8:-1 9:1 10:1 11:-1 12:-1 13:-1 14:-1 15:-0.8 16:-1 17:-1 
21.32845456917888 1:-1 2:-1 3:-1 4:1 5:1 6:-1 7:1 8:-1 9:0.4 10:1 11:-1 12:-1 13:-1 14:-1 15:-0.8 16:-1 17:-1 
8.762571269150767 1:-1 2:-1 3:-1 4:0.46666667 5:1 6:-1 7:1 8:-1 9:0.4 10:1 11:-1 12:-1 13:-1 14:-1 15:-0.8 16:-1 17:-1 
3.996533723769864 1:-1 2:-1 3:-1 4:1 5:-0.46666667 6:-1 7:1 8:-1 9:1 10:1 11:-1 12:-1 13:-1 14:-1 15:-0.8 16:-1 17:-1 
26.90868528811887 1:-1 2:-1 3:-1 4:1 5:0.2 6:1 7:-1 8:-1 9:-0.8 10:1 11:1 12:1 13:-1 14:-1 15:-0.8 16:1 17:1 
0.9001449257461552 1:-1 2:-1 3:-1 4:-0.73333333 5:-0.73333333 6:-1 7:1 8:-1 9:1 10:-1 11:-1 12:-1 13:1 14:-1 15:-0.4 16:-1 17:-1 
7.068908777498668 1:-1 2:-1 3:-1 4:-0.33333333 5:-0.066666667 6:1 7:-1 8:-1 9:-0.4 10:-1 11:-1 12:-1 13:-1 14:1 15:-0.8 16:-1 17:-1 
26.90868528811887 1:-1 2:-1 3:-1 4:1 5:1 6:-1 7:-1 8:1 9:-0.8 10:-1 11:-1 12:1 13:-1 14:-1 15:1 16:1 17:-1 
26.90868528811887 1:-1 2:-1 3:-1 4:-0.73333333 5:-0.33333333 6:-1 7:-1 8:1 9:-0.6 10:-1 11:-1 12:1 13:-1 14:-1 15:0.8 16:1 17:-1 
0.3276601954424677 1:-1 2:-1 3:-1 4:1 5:0.86666667 6:-1 7:1 8:-1 9:0 10:-1 11:-1 12:-1 13:1 14:-1 15:-0.6 16:-1 17:-1 
0.6758240195084048 1:-1 2:-1 3:-1 4:-0.73333333 5:-0.73333333 6:-1 7:1 8:-1 9:1 10:-1 11:-1 12:-1 13:1 14:-1 15:-0.4 16:-1 17:-1 
0.9167009969000541 1:-1 2:-1 3:-1 4:1 5:1 6:1 7:-1 8:-1 9:-0.4 10:-1 11:-1 12:-1 13:-1 14:1 15:-0.8 16:-1 17:-1 
6.410540267636204 1:-1 2:-1 3:-1 4:1 5:-0.6 6:1 7:-1 8:-1 9:-0.4 10:1 11:1 12:1 13:-1 14:-1 15:1 16:1 17:1 
26.90868528811887 1:-1 2:-1 3:-1 4:-0.2 5:0.73333333 6:-1 7:-1 8:1 9:-0.8 10:-1 11:-1 12:1 13:-1 14:-1 15:0.6 16:1 17:-1 
25.55486428330788 1:-1 2:-1 3:-1 4:-0.73333333 5:1 6:-1 7:1 8:-1 9:-0.8 10:1 11:1 12:1 13:-1 14:-1 15:0.2 16:1 17:-1 
26.90868528811887 1:-1 2:-1 3:-1 4:0.33333333 5:1 6:-1 7:1 8:-1 9:-0.8 10:1 11:1 12:-1 13:1 14:-1 15:-0.8 16:1 17:1 
26.90868528811887 1:-1 2:-1 3:-1 4:1 5:-0.2 6:-1 7:1 8:-1 9:-0.2 10:1 11:-1 12:-1 13:1 14:-1 15:-0.6 16:1 17:1 
26.90868528811887 1:1 2:-1 3:-1 4:0.73333333 5:-0.6 6:1 7:-1 8:-1 9:-0.6 10:-1 11:-1 12:1 13:-1 14:-1 15:0.4 16:1 17:-1 
26.90868528811887 1:1 2:-1 3:-1 4:-0.6 5:1 6:1 7:-1 8:-1 9:-0.6 10:-1 11:-1 12:1 13:-1 14:-1 15:-0.2 16:1 17:-1 
26.90868528811887 1:-1 2:-1 3:1 4:1 5:1 6:1 7:-1 8:-1 9:0.4 10:1 11:-1 12:1 13:-1 14:-1 15:0 16:1 17:-1 
26.90868528811887 1:1 2:-1 3:-1 4:1 5:1 6:1 7:-1 8:-1 9:0.2 10:-1 11:-1 12:-1 13:-1 14:-1 15:-0.8 16:-1 17:-1 
24.51028068196476 1:-1 2:-1 3:-1 4:0.73333333 5:-0.46666667 6:-1 7:1 8:-1 9:-0.2 10:1 11:-1 12:-1 13:1 14:-1 15:-0.6 16:1 17:1 
26.90868528811887 1:-1 2:-1 3:-1 4:-0.73333333 5:-0.066666667 6:1 7:-1 8:-1 9:-0.8 10:1 11:1 12:1 13:-1 14:-1 15:-0.8 16:1 17:1 
23.82792810288452 1:-1 2:-1 3:-1 4:-0.73333333 5:1 6:1 7:-1 8:-1 9:-0.4 10:1 11:1 12:1 13:-1 14:-1 15:0.6 16:1 17:1 
26.90868528811887 1:-1 2:-1 3:-1 4:-0.73333333 5:0.33333333 6:1 7:-1 8:-1 9:-0.8 10:1 11:1 12:1 13:-1 14:-1 15:0 16:1 17:-1 
6.909524488956123 1:-1 2:-1 3:-1 4:-0.73333333 5:0.86666667 6:1 7:-1 8:-1 9:-0.4 10:-1 11:-1 12:-1 13:-1 14:-1 15:-0.8 16:-1 17:-1 
18.09189658386894 1:-1 2:-1 3:-1 4:1 5:-0.6 6:1 7:-1 8:-1 9:-0.8 10:1 11:1 12:-1 13:-1 14:-1 15:-0.8 16:-1 17:-1 
26.90868528811887 1:-1 2:-1 3:-1 4:-0.2 5:0.2 6:1 7:-1 8:-1 9:0 10:-1 11:-1 12:1 13:-1 14:-1 15:-0.2 16:1 17:1 
17.25156306270892 1:-1 2:-1 3:-1 4:0.33333333 5:-0.73333333 6:-1 7:-1 8:1 9:-0.4 10:-1 11:-1 12:-1 13:-1 14:1 15:-0.4 16:-1 17:-1 
26.90868528811887 1:1 2:-1 3:-1 4:0.46666667 5:1 6:1 7:-1 8:-1 9:0.4 10:-1 11:-1 12:-1 13:-1 14:-1 15:-0.8 16:-1 17:-1 
26.90868528811887 1:-1 2:-1 3:-1 4:-0.86666667 5:-0.73333333 6:-1 7:-1 8:-1 9:-0.8 10:-1 11:-1 12:1 13:-1 14:-1 15:0.6 16:1 17:-1 
26.90868528811887 1:-1 2:-1 3:-1 4:-0.86666667 5:1 6:-1 7:-1 8:-1 9:-0.8 10:-1 11:-1 12:1 13:-1 14:-1 15:-0.2 16:1 17:1 
-9.604504762445334 1:-1 2:-1 3:-1 4:0.2 5:0.46666667 6:1 7:-1 8:-1 9:-0.4 10:1 11:1 12:1 13:-1 14:-1 15:0.4 16:1 17:-1 
-22.93195388003433 1:-1 2:-1 3:-1 4:-0.73333333 5:-0.6 6:1 7:-1 8:-1 9:-0.4 10:-1 11:-1 12:1 13:-1 14:-1 15:-0.8 16:1 17:1 
-0.9093675567338595 1:-1 2:1 3:-1 4:1 5:0.33333333 6:1 7:-1 8:-1 9:0.2 10:1 11:-1 12:1 13:-1 14:-1 15:0.8 16:1 17:-1 
-26.90868528811887 1:-1 2:-1 3:-1 4:-0.73333333 5:1 6:1 7:-1 8:-1 9:-0.8 10:1 11:1 12:1 13:-1 14:-1 15:-0.2 16:1 17:-1 
-8.314055506787362 1:-1 2:1 3:-1 4:1 5:1 6:1 7:-1 8:-1 9:0.2 10:1 11:-1 12:1 13:-1 14:-1 15:1 16:1 17:-1 
-26.90868528811887 1:1 2:-1 3:-1 4:0.86666667 5:-0.6 6:1 7:-1 8:-1 9:0.2 10:-1 11:-1 12:-1 13:-1 14:-1 15:-0.8 16:-1 17:-1 
-26.90868528811887 1:-1 2:-1 3:1 4:1 5:-0.6 6:1 7:-1 8:-1 9:1 10:-1 11:-1 12:-1 13:-1 14:-1 15:-0.8 16:-1 17:-1 
-0.7580482847758561 1:-1 2:-1 3:-1 4:1 5:-0.6 6:1 7:-1 8:-1 9:-0.2 10:1 11:1 12:-1 13:-1 14:-1 15:-0.8 16:-1 17:-1 
-26.90868528811887 1:-1 2:1 3:-1 4:0.6 5:-0.6 6:1 7:-1 8:-1 9:1 10:-1 11:-1 12:-1 13:-1 14:-1 15:-0.8 16:-1 17:-1 
-26.90868528811887 1:1 2:-1 3:-1 4:0.46666667 5:-0.6 6:1 7:-1 8:-1 9:1 10:-1 11:-1 12:-1 13:-1 14:-1 15:-0.8 16:-1 17:-1 
-26.90868528811887 1:-1 2:-1 3:-1 4:-0.86666667 5:1 6:-1 7:-1 8:-1 9:-0.8 10:-1 11:-1 12:-1 13:-1 14:-1 15:-0.8 16:-1 17:-1 
-26.90868528811887 1:-1 2:-1 3:-1 4:-0.73333333 5:1 6:1 7:-1 8:-1 9:-0.8 10:-1 11:-1 12:1 13:-1 14:-1 15:-0.4 16:1 17:-1 
-0.371435189593342 1:1 2:-1 3:-1 4:-0.066666667 5:0.066666667 6:1 7:-1 8:-1 9:0 10:1 11:-1 12:1 13:-1 14:-1 15:0.2 16:1 17:-1 
-5.334610283644977 1:-1 2:-1 3:-1 4:-0.73333333 5:-0.2 6:-1 7:-1 8:1 9:-0.4 10:-1 11:-1 12:1 13:-1 14:-1 15:-0.4 16:1 17:-1 
-10.04963287919285 1:-1 2:-1 3:-1 4:-0.73333333 5:-0.6 6:1 7:-1 8:-1 9:-0.4 10:-1 11:-1 12:1 13:-1 14:-1 15:-0.8 16:1 17:1 
-17.49228227115744 1:-1 2:-1 3:-1 4:-0.86666667 5:-0.46666667 6:-1 7:-1 8:-1 9:-0.8 10:-1 11:-1 12:1 13:-1 14:-1 15:0.6 16:1 17:-1 
-26.90868528811887 1:-1 2:-1 3:-1 4:-0.46666667 5:1 6:-1 7:-1 8:1 9:-0.6 10:-1 11:-1 12:1 13:-1 14:-1 15:-0.4 16:1 17:-1 
-26.90868528811887 1:-1 2:-1 3:-1 4:1 5:-0.2 6:-1 7:-1 8:1 9:-0.8 10:-1 11:-1 12:1 13:-1 14:-1 15:0.4 16:1 17:-1 
-20.65698171327185 1:-1 2:-1 3:-1 4:-0.86666667 5:1 6:-1 7:-1 8:-1 9:-0.8 10:-1 11:-1 12:1 13:-1 14:-1 15:0.6 16:1 17:1 
-26.90868528811887 1:-1 2:-1 3:-1 4:-0.73333333 5:1 6:-1 7:-1 8:1 9:-0.6 10:-1 11:-1 12:1 13:-1 14:-1 15:-0.4 16:1 17:-1 
-0.00565022318679332 1:1 2:-1 3:-1 4:1 5:-0.86666667 6:1 7:-1 8:-1 9:0 10:1 11:-1 12:1 13:1 14:1 15:1 16:1 17:1 
-10.07469335524914 1:-1 2:-1 3:-1 4:-0.86666667 5:-0.46666667 6:-1 7:-1 8:-1 9:-0.8 10:-1 11:-1 12:1 13:-1 14:-1 15:0.6 16:1 17:-1 
-26.90868528811887 1:-1 2:-1 3:-1 4:-0.73333333 5:1 6:1 7:-1 8:-1 9:-0.8 10:1 11:1 12:1 13:-1 14:-1 15:-0.2 16:1 17:-1 
-26.90868528811887 1:-1 2:-1 3:-1 4:-0.73333333 5:1 6:1 7:-1 8:-1 9:-0.4 10:-1 11:-1 12:-1 13:-1 14:-1 15:-0.8 16:-1 17:-1 
-26.90868528811887 1:-1 2:-1 3:1 4:-0.33333333 5:-0.6 6:1 7:-1 8:-1 9:0.4 10:-1 11:-1 12:-1 13:-1 14:-1 15:-0.8 16:-1 17:-1 
-12.75537948425278 1:-1 2:-1 3:1 4:1 5:-0.6 6:1 7:-1 8:-1 9:0.4 10:1 11:-1 12:-1 13:-1 14:-1 15:-0.8 16:-1 17:-1 
-26.90868528811887 1:1 2:-1 3:-1 4:1 5:-0.6 6:1 7:-1 8:-1 9:0.2 10:-1 11:-1 12:-1 13:-1 14:-1 15:-0.8 16:-1 17:-1 
-26.90868528811887 1:1 2:-1 3:-1 4:1 5:-0.6 6:1 7:-1 8:-1 9:0.2 10:-1 11:-1 12:-1 13:-1 14:-1 15:-0.8 16:-1 17:-1 
-0.08229296772801351 1:1 2:-1 3:-1 4:1 5:-0.6 6:1 7:-1 8:-1 9:-0.2 10:-1 11:-1 12:1 13:-1 14:-1 15:-0.8 16:1 17:1 
-1.544789188241103 1:1 2:-1 3:-1 4:1 5:-0.46666667 6:1 7:-1 8:-1 9:0.2 10:1 11:-1 12:1 13:-1 14:-1 15:-0.2 16:1 17:-1 
-0.2775381358649606 1:-1 2:-1 3:-1 4:0.46666667 5:-0.86666667 6:1 7:-1 8:-1 9:-0.4 10:-1 11:-1 12:1 13:1 14:1 15:1 16:1 17:1 
-25.36575225530089 1:-1 2:-1 3:-1 4:-0.6 5:1 6:1 7:-1 8:-1 9:-0.4 10:-1 11:-1 12:1 13:-1 14:-1 15:0.8 16:1 17:-1 
-11.02870068213683 1:-1 2:-1 3:-1 4:1 5:-0.6 6:1 7:-1 8:-1 9:-0.4 10:1 11:1 12:1 13:-1 14:-1 15:-0.8 16:1 17:1 
-0.03920052465055305 1:1 2:-1 3:-1 4:1 5:-0.6 6:1 7:-1 8:-1 9:-0.2 10:-1 11:-1 12:1 13:-1 14:-1 15:-0.8 16:1 17:1 
-26.90868528811887 1:-1 2:-1 3:-1 4:1 5:0.6 6:-1 7:-1 8:1 9:-0.8 10:-1 11:-1 12:1 13:-1 14:-1 15:1 16:1 17:-1 
-10.85818266397113 1:-1 2:1 3:-1 4:1 5:1 6:1 7:-1 8:-1 9:0.2 10:1 11:-1 12:1 13:-1 14:-1 15:1 16:1 17:-1 
-26.90868528811887 1:-1 2:-1 3:-1 4:-0.066666667 5:-0.73333333 6:1 7:-1 8:-1 9:-0.6 10:1 11:1 12:-1 13:-1 14:1 15:-0.4 16:-1 17:-1 
-0.3353680276101844 1:-1 2:-1 3:1 4:0.86666667 5:-0.6 6:1 7:-1 8:-1 9:0.2 10:1 11:-1 12:1 13:-1 14:-1 15:-0.8 16:1 17:1 
-26.90868528811887 1:-1 2:-1 3:-1 4:-0.73333333 5:-0.46666667 6:1 7:-1 8:-1 9:-0.8 10:1 11:1 12:1 13:-1 14:-1 15:0.8 16:1 17:-1 
-6.826973277957669 1:-1 2:-1 3:-1 4:1 5:-0.066666667 6:-1 7:-1 8:1 9:-0.6 10:-1 11:-1 12:1 13:-1 14:-1 15:-0.4 16:1 17:-1 
-10.4376497675986 1:-1 2:-1 3:-1 4:-0.6 5:-0.6 6:-1 7:-1 8:-1 9:-0.8 10:-1 11:-1 12:1 13:-1 14:-1 15:-0.8 16:1 17:1 
-2.675470256893537 1:-1 2:1 3:-1 4:1 5:-0.73333333 6:1 7:-1 8:-1 9:0 10:-1 11:-1 12:-1 13:-1 14:1 15:-0.8 16:-1 17:-1 
-0.4034770089099531 1:-1 2:-1 3:1 4:1 5:-0.73333333 6:1 7:-1 8:-1 9:0 10:-1 11:-1 12:-1 13:-1 14:1 15:-0.8 16:-1 17:-1 
-2.746716858237529 1:-1 2:-1 3:-1 4:-0.73333333 5:-0.86666667 6:1 7:-1 8:-1 9:-0.8 10:1 11:1 12:1 13:1 14:1 15:1 16:1 17:1 
-4.27289200113702 1:1 2:-1 3:-1 4:-0.73333333 5:1 6:1 7:-1 8:-1 9:-0.8 10:-1 11:-1 12:1 13:-1 14:-1 15:0.8 16:1 17:-1 
-1.673379702443766 1:-1 2:-1 3:-1 4:-0.066666667 5:-0.86666667 6:-1 7:-1 8:1 9:-0.8 10:-1 11:-1 12:1 13:1 14:1 15:1 16:1 17:1 
-26.90868528811887 1:-1 2:-1 3:-1 4:1 5:-0.73333333 6:-1 7:-1 8:1 9:-0.2 10:-1 11:-1 12:-1 13:-1 14:1 15:-0.8 16:-1 17:-1 
-23.79300080394386 1:-1 2:-1 3:-1 4:-0.6 5:-0.73333333 6:1 7:-1 8:-1 9:-0.4 10:1 11:1 12:-1 13:-1 14:1 15:-0.8 16:-1 17:-1 
-6.032239965622413 1:-1 2:-1 3:1 4:0.73333333 5:1 6:1 7:-1 8:-1 9:0 10:1 11:-1 12:1 13:-1 14:-1 15:1 16:1 17:-1 
-10.92679481215227 1:-1 2:-1 3:-1 4:-0.73333333 5:-0.46666667 6:1 7:-1 8:-1 9:-0.4 10:-1 11:-1 12:1 13:-1 14:-1 15:0.6 16:1 17:-1 
-3.888240026478703 1:-1 2:-1 3:-1 4:-0.6 5:-0.6 6:-1 7:-1 8:-1 9:-0.8 10:-1 11:-1 12:1 13:-1 14:-1 15:0 16:1 17:-1 
-26.90868528811887 1:-1 2:-1 3:-1 4:-0.73333333 5:1 6:1 7:-1 8:-1 9:-0.8 10:1 11:1 12:1 13:-1 14:-1 15:0.4 16:1 17:-1 
-26.90868528811887 1:-1 2:-1 3:-1 4:-0.73333333 5:1 6:1 7:-1 8:-1 9:-0.8 10:1 11:1 12:1 13:-1 14:-1 15:0 16:1 17:-1 
-4.03902060081748 1:1 2:-1 3:-1 4:-0.066666667 5:1 6:1 7:-1 8:-1 9:0 10:-1 11:-1 12:1 13:-1 14:-1 15:-0.8 16:-1 17:-1 
-0.0687047720239052 1:-1 2:-1 3:-1 4:1 5:-0.86666667 6:-1 7:1 8:-1 9:-0.2 10:1 11:-1 12:1 13:1 14:1 15:1 16:1 17:1 
-3.11038083531193 1:1 2:-1 3:-1 4:1 5:-0.6 6:1 7:-1 8:-1 9:0 10:-1 11:-1 12:1 13:-1 14:-1 15:-0.6 16:1 17:-1 
-1.044751599775805 1:-1 2:-1 3:-1 4:1 5:0.2 6:1 7:-1 8:-1 9:0.8 10:1 11:-1 12:-1 13:1 14:-1 15:-0.8 16:1 17:1 
-26.90868528811887 1:-1 2:-1 3:-1 4:1 5:1 6:1 7:-1 8:-1 9:-0.8 10:1 11:1 12:1 13:-1 14:-1 15:-0.2 16:1 17:-1 
-25.36247085043601 1:-1 2:-1 3:-1 4:1 5:1 6:1 7:-1 8:-1 9:-0.8 10:1 11:1 12:1 13:-1 14:-1 15:-0.6 16:1 17:-1 
-0.5474882074412393 1:-1 2:-1 3:-1 4:-0.46666667 5:-0.2 6:-1 7:1 8:-1 9:0.4 10:1 11:-1 12:-1 13:1 14:-1 15:-0.8 16:1 17:1 
-26.90868528811887 1:-1 2:-1 3:-1 4:1 5:0.6 6:1 7:-1 8:-1 9:-0.8 10:1 11:1 12:1 13:-1 14:-1 15:1 16:1 17:-1 
-2.678296569853231 1:-1 2:-1 3:-1 4:0.86666667 5:1 6:-1 7:1 8:-1 9:-0.6 10:1 11:1 12:1 13:-1 14:-1 15:0.8 16:1 17:-1 
-26.90868528811887 1:-1 2:-1 3:-1 4:-0.73333333 5:0.33333333 6:1 7:-1 8:-1 9:-0.8 10:1 11:1 12:1 13:-1 14:-1 15:-0.6 16:1 17:-1 
-15.70167724206958 1:-1 2:-1 3:-1 4:1 5:-0.6 6:1 7:-1 8:-1 9:-0.4 10:1 11:1 12:1 13:-1 14:-1 15:0.4 16:1 17:-1 
-26.90868528811887 1:-1 2:-1 3:-1 4:-0.73333333 5:1 6:1 7:-1 8:-1 9:-0.8 10:-1 11:-1 12:1 13:-1 14:-1 15:-0.2 16:1 17:-1 
-26.90868528811887 1:-1 2:-1 3:-1 4:-0.73333333 5:1 6:1 7:-1 8:-1 9:-0.8 10:-1 11:-1 12:1 13:-1 14:-1 15:-0.2 16:1 17:-1 
-26.90868528811887 1:-1 2:-1 3:-1 4:0.066666667 5:1 6:-1 7:-1 8:1 9:-0.8 10:-1 11:-1 12:1 13:-1 14:-1 15:-0.8 16:1 17:1 
-2.036325533659454 1:1 2:-1 3:-1 4:-0.6 5:0.73333333 6:1 7:-1 8:-1 9:0.6 10:1 11:-1 12:-1 13:-1 14:-1 15:-0.8 16:-1 17:-1 
-25.32994870913596 1:-1 2:-1 3:-1 4:-0.73333333 5:1 6:1 7:-1 8:-1 9:-0.8 10:-1 11:-1 12:1 13:-1 14:-1 15:-0.8 16:1 17:1 
-26.90868528811887 1:-1 2:-1 3:-1 4:-0.73333333 5:1 6:1 7:-1 8:-1 9:-0.8 10:-1 11:-1 12:-1 13:1 14:-1 15:-0.8 16:1 17:1 
-4.032784344963678 1:-1 2:-1 3:-1 4:1 5:1 6:-1 7:-1 8:1 9:-0.8 10:-1 11:-1 12:1 13:-1 14:-1 15:-0.6 16:1 17:-1 
-9.623622413330908 1:-1 2:-1 3:-1 4:-0.73333333 5:1 6:1 7:-1 8:-1 9:-0.8 10:-1 11:-1 12:1 13:-1 14:-1 15:-0.8 16:1 17:1 
-26.8024871761786 1:-1 2:-1 3:-1 4:1 5:1 6:-1 7:-1 8:1 9:-0.8 10:-1 11:-1 12:1 13:-1 14:-1 15:0.2 16:1 17:-1 
-6.730897767162639 1:-1 2:1 3:-1 4:1 5:1 6:1 7:-1 8:-1 9:0 10:-1 11:-1 12:1 13:-1 14:-1 15:0.4 16:-1 17:-1 
-3.722478351433703 1:-1 2:-1 3:-1 4:1 5:-0.33333333 6:-1 7:-1 8:-1 9:-0.8 10:-1 11:-1 12:1 13:-1 14:-1 15:-0.8 16:-1 17:-1 
-2.481643737369063 1:1 2:-1 3:-1 4:1 5:-0.2 6:1 7:-1 8:-1 9:0 10:-1 11:-1 12:1 13:-1 14:-1 15:-0.8 16:-1 17:-1 
-0.1029963134063036 1:-1 2:-1 3:1 4:0.46666667 5:-0.2 6:1 7:-1 8:-1 9:0.8 10:-1 11:-1 12:1 13:-1 14:-1 15:-0.8 16:-1 17:-1 
-12.80953351934572 1:-1 2:-1 3:1 4:0.33333333 5:1 6:1 7:-1 8:-1 9:0 10:1 11:-1 12:1 13:-1 14:-1 15:0.2 16:1 17:-1 
-4.994017644552671 1:-1 2:-1 3:-1 4:1 5:1 6:1 7:-1 8:-1 9:-0.4 10:-1 11:-1 12:1 13:-1 14:-1 15:0.6 16:1 17:-1 
-26.90868528811887 1:-1 2:-1 3:-1 4:1 5:-0.066666667 6:1 7:-1 8:-1 9:-0.6 10:1 11:1 12:1 13:-1 14:-1 15:-0.8 16:1 17:1 
-2.5838755593084 1:-1 2:-1 3:-1 4:1 5:0.73333333 6:1 7:-1 8:-1 9:-0.4 10:-1 11:-1 12:1 13:-1 14:-1 15:-0.8 16:1 17:1 
-2.871985654042315 1:1 2:-1 3:-1 4:-0.73333333 5:-0.73333333 6:1 7:-1 8:-1 9:-0.2 10:-1 11:-1 12:-1 13:-1 14:1 15:-0.8 16:-1 17:-1 
-0.6254030692609996 1:-1 2:-1 3:-1 4:1 5:-0.73333333 6:-1 7:1 8:-1 9:0.2 10:1 11:-1 12:-1 13:-1 14:1 15:-0.8 16:-1 17:-1 
-26.90868528811887 1:-1 2:-1 3:-1 4:-0.73333333 5:1 6:1 7:-1 8:-1 9:-0.8 10:1 11:1 12:-1 13:1 14:-1 15:-0.8 16:1 17:1 
-0.7520002778795265 1:1 2:-1 3:-1 4:1 5:-0.46666667 6:1 7:-1 8:-1 9:-0.2 10:-1 11:-1 12:1 13:-1 14:-1 15:0 16:1 17:-1 
-12.18785108638856 1:1 2:-1 3:-1 4:1 5:-0.066666667 6:1 7:-1 8:-1 9:-0.8 10:-1 11:-1 12:1 13:-1 14:-1 15:1 16:1 17:-1 
-26.90868528811887 1:-1 2:-1 3:-1 4:0.33333333 5:1 6:-1 7:-1 8:1 9:-0.8 10:-1 11:-1 12:1 13:-1 14:-1 15:-0.2 16:1 17:-1 
-1.107664427921121 1:-1 2:-1 3:1 4:1 5:1 6:1 7:-1 8:-1 9:-0.8 10:-1 11:-1 12:1 13:-1 14:-1 15:-0.8 16:1 17:1 
-26.90868528811887 1:-1 2:-1 3:-1 4:1 5:1 6:1 7:-1 8:-1 9:-0.8 10:1 11:1 12:1 13:-1 14:-1 15:-0.2 16:1 17:-1 
-26.90868528811887 1:-1 2:-1 3:-1 4:0.86666667 5:-0.066666667 6:1 7:-1 8:-1 9:-0.6 10:1 11:1 12:1 13:-1 14:-1 15:-0.8 16:1 17:1 
-26.90868528811887 1:-1 2:-1 3:-1 4:0.2 5:1 6:-1 7:1 8:-1 9:-0.6 10:1 11:1 12:1 13:-1 14:-1 15:1 16:1 17:-1 
-0.1704193681778698 1:-1 2:-1 3:-1 4:-0.73333333 5:-0.86666667 6:1 7:-1 8:-1 9:-0.8 10:1 11:1 12:1 13:1 14:1 15:1 16:1 17:1 
-26.90868528811887 1:-1 2:-1 3:-1 4:1 5:1 6:1 7:-1 8:-1 9:-0.6 10:1 11:1 12:1 13:-1 14:-1 15:1 16:1 17:-1 
-0.2946154927787149 1:-1 2:-1 3:1 4:1 5:1 6:1 7:-1 8:-1 9:0.2 10:-1 11:-1 12:1 13:-1 14:-1 15:-0.4 16:-1 17:-1 
-26.90868528811887 1:-1 2:-1 3:-1 4:1 5:0.73333333 6:1 7:-1 8:-1 9:0.4 10:-1 11:-1 12:1 13:-1 14:-1 15:-0.2 16:-1 17:-1 
-0.08662792084316107 1:1 2:-1 3:-1 4:1 5:1 6:1 7:-1 8:-1 9:-0.4 10:1 11:-1 12:-1 13:1 14:-1 15:-0.8 16:1 17:1 
-26.90868528811887 1:-1 2:-1 3:1 4:1 5:-0.86666667 6:1 7:-1 8:-1 9:1 10:-1 11:-1 12:-1 13:-1 14:-1 15:-0.8 16:-1 17:-1 
-2.124256452967363 1:-1 2:-1 3:-1 4:1 5:1 6:1 7:-1 8:-1 9:-0.6 10:1 11:1 12:-1 13:1 14:-1 15:-0.8 16:1 17:1 
-26.90868528811887 1:-1 2:-1 3:-1 4:1 5:-0.46666667 6:1 7:-1 8:-1 9:-0.4 10:1 11:1 12:-1 13:-1 14:-1 15:-0.8 16:-1 17:-1 
-4.816673512921848 1:-1 2:-1 3:1 4:1 5:-0.33333333 6:1 7:-1 8:-1 9:1 10:-1 11:-1 12:-1 13:-1 14:-1 15:-0.8 16:-1 17:-1 
-24.97539559442668 1:-1 2:-1 3:-1 4:1 5:-0.33333333 6:-1 7:-1 8:-1 9:-0.8 10:-1 11:-1 12:-1 13:-1 14:-1 15:-0.8 16:-1 17:-1 
-9.196755957738576 1:-1 2:1 3:-1 4:-0.33333333 5:-0.46666667 6:1 7:-1 8:-1 9:-0.2 10:1 11:-1 12:-1 13:-1 14:-1 15:-0.8 16:-1 17:-1 
-26.90868528811887 1:-1 2:-1 3:-1 4:1 5:1 6:-1 7:1 8:-1 9:0.6 10:1 11:-1 12:-1 13:-1 14:-1 15:-0.8 16:-1 17:-1 
-13.01639599910919 1:1 2:-1 3:-1 4:1 5:0.86666667 6:1 7:-1 8:-1 9:-0.6 10:-1 11:-1 12:-1 13:-1 14:-1 15:-0.8 16:-1 17:-1 
-26.90868528811887 1:-1 2:-1 3:-1 4:1 5:1 6:-1 7:1 8:-1 9:-0.8 10:1 11:1 12:-1 13:1 14:-1 15:-0.8 16:1 17:1 
-26.90868528811887 1:-1 2:-1 3:-1 4:1 5:1 6:-1 7:1 8:-1 9:-0.8 10:1 11:1 12:-1 13:1 14:-1 15:-0.8 16:1 17:1 
-2.116055376443247 1:1 2:-1 3:-1 4:-0.73333333 5:1 6:1 7:-1 8:-1 9:-0.8 10:-1 11:-1 12:-1 13:1 14:-1 15:-0.8 16:1 17:1 
-26.90868528811887 1:-1 2:-1 3:-1 4:1 5:1 6:-1 7:-1 8:1 9:-0.8 10:-1 11:-1 12:1 13:-1 14:-1 15:0.2 16:1 17:-1 
-3.529427213815811 1:-1 2:-1 3:1 4:1 5:-0.73333333 6:1 7:-1 8:-1 9:0.2 10:-1 11:-1 12:-1 13:1 14:-1 15:-0.8 16:1 17:1 
-17.65140840804463 1:-1 2:-1 3:-1 4:1 5:1 6:-1 7:1 8:-1 9:-0.8 10:1 11:1 12:-1 13:1 14:-1 15:-0.8 16:1 17:1 
-26.90868528811887 1:-1 2:-1 3:-1 4:1 5:1 6:-1 7:1 8:-1 9:-0.8 10:1 11:1 12:1 13:-1 14:-1 15:1 16:1 17:-1 
-26.90868528811887 1:-1 2:-1 3:-1 4:1 5:1 6:1 7:-1 8:-1 9:-0.8 10:1 11:1 12:-1 13:1 14:-1 15:-0.8 16:1 17:1 
-26.90868528811887 1:-1 2:-1 3:-1 4:-0.46666667 5:1 6:-1 7:-1 8:1 9:-0.6 10:-1 11:-1 12:1 13:-1 14:-1 15:0.8 16:1 17:-1 
-26.90868528811887 1:-1 2:-1 3:-1 4:0.73333333 5:1 6:1 7:-1 8:-1 9:-0.4 10:-1 11:-1 12:1 13:-1 14:-1 15:0.6 16:1 17:-1 
-2.423973311883488 1:1 2:-1 3:-1 4:1 5:-0.46666667 6:1 7:-1 8:-1 9:-0.2 10:-1 11:-1 12:-1 13:1 14:-1 15:-0.8 16:1 17:1 
-26.90868528811887 1:1 2:-1 3:-1 4:-0.066666667 5:1 6:1 7:-1 8:-1 9:-0.2 10:-1 11:-1 12:-1 13:-1 14:-1 15:-0.8 16:-1 17:-1 
-26.90868528811887 1:-1 2:-1 3:-1 4:1 5:1 6:1 7:-1 8:-1 9:-0.8 10:1 11:1 12:-1 13:1 14:-1 15:-0.8 16:1 17:1 
-26.90868528811887 1:-1 2:-1 3:-1 4:1 5:1 6:-1 7:-1 8:1 9:-0.8 10:-1 11:-1 12:-1 13:-1 14:1 15:-0.8 16:-1 17:-1 
-26.90868528811887 1:-1 2:-1 3:-1 4:0.73333333 5:1 6:-1 7:-1 8:1 9:-0.8 10:-1 11:-1 12:-1 13:-1 14:1 15:-0.8 16:-1 17:-1 
-26.90868528811887 1:-1 2:-1 3:-1 4:1 5:1 6:-1 7:-1 8:1 9:-0.8 10:-1 11:-1 12:1 13:-1 14:-1 15:0.4 16:1 17:-1 
-26.90868528811887 1:-1 2:-1 3:-1 4:-0.33333333 5:1 6:-1 7:-1 8:-1 9:-0.8 10:-1 11:-1 12:-1 13:-1 14:1 15:-0.6 16:-1 17:-1 
-26.90868528811887 1:-1 2:-1 3:-1 4:1 5:1 6:-1 7:-1 8:1 9:-0.8 10:-1 11:-1 12:-1 13:-1 14:1 15:-0.6 16:-1 17:-1 
-26.90868528811887 1:-1 2:-1 3:-1 4:-0.6 5:1 6:-1 7:-1 8:1 9:-0.6 10:-1 11:-1 12:-1 13:1 14:-1 15:-0.8 16:1 17:1 
-2.043048986563144 1:1 2:-1 3:-1 4:1 5:0.2 6:1 7:-1 8:-1 9:-0.2 10:-1 11:-1 12:-1 13:1 14:-1 15:0.4 16:1 17:-1 
-4.149491653113698 1:-1 2:-1 3:-1 4:1 5:0.2 6:-1 7:1 8:-1 9:0 10:1 11:-1 12:-1 13:1 14:-1 15:-0.6 16:1 17:-1 
-26.90868528811887 1:-1 2:-1 3:-1 4:1 5:1 6:1 7:-1 8:-1 9:-0.6 10:1 11:1 12:1 13:-1 14:-1 15:1 16:1 17:-1 
-0.8698683486284873 1:1 2:-1 3:-1 4:0.33333333 5:-0.6 6:1 7:-1 8:-1 9:-0.2 10:-1 11:-1 12:1 13:-1 14:-1 15:0.6 16:1 17:-1 
-26.90868528811887 1:-1 2:-1 3:-1 4:-0.73333333 5:1 6:1 7:-1 8:-1 9:-0.8 10:1 11:1 12:1 13:-1 14:-1 15:-0.4 16:1 17:-1 
-9.78697080059499 1:-1 2:-1 3:-1 4:1 5:1 6:-1 7:-1 8:1 9:-0.8 10:-1 11:-1 12:1 13:-1 14:-1 15:-0.6 16:1 17:-1 
-2.750446290618366 1:-1 2:1 3:-1 4:1 5:1 6:1 7:-1 8:-1 9:-0.6 10:-1 11:-1 12:1 13:-1 14:-1 15:0.8 16:1 17:-1 
-1.471302679256592 1:-1 2:-1 3:-1 4:0.33333333 5:-0.6 6:-1 7:-1 8:-1 9:-0.8 10:-1 11:-1 12:-1 13:1 14:-1 15:-0.8 16:1 17:1 
-26.90868528811887 1:-1 2:-1 3:-1 4:-0.33333333 5:1 6:-1 7:-1 8:-1 9:-0.8 10:-1 11:-1 12:-1 13:-1 14:-1 15:-0.8 16:-1 17:-1 
-26.90868528811887 1:-1 2:-1 3:-1 4:-0.73333333 5:1 6:1 7:-1 8:-1 9:-0.6 10:-1 11:-1 12:-1 13:1 14:-1 15:-0.6 16:1 17:1 
-26.90868528811887 1:-1 2:-1 3:-1 4:-0.73333333 5:1 6:1 7:-1 8:-1 9:-0.6 10:-1 11:-1 12:-1 13:1 14:-1 15:-0.8 16:1 17:1 
-26.90868528811887 1:-1 2:-1 3:-1 4:1 5:-0.6 6:-1 7:1 8:-1 9:-0.4 10:1 11:1 12:-1 13:1 14:-1 15:-0.8 16:1 17:1 
-26.90868528811887 1:-1 2:-1 3:-1 4:-0.73333333 5:1 6:1 7:-1 8:-1 9:-0.6 10:-1 11:-1 12:-1 13:1 14:-1 15:-0.6 16:1 17:1 
-17.17360674313657 1:-1 2:1 3:-1 4:1 5:1 6:1 7:-1 8:-1 9:-0.6 10:-1 11:-1 12:-1 13:1 14:-1 15:-0.8 16:1 17:1 
-26.90868528811887 1:-1 2:1 3:-1 4:0.86666667 5:0.46666667 6:1 7:-1 8:-1 9:-0.6 10:-1 11:-1 12:-1 13:1 14:-1 15:-0.8 16:1 17:1 
-26.90868528811887 1:-1 2:1 3:-1 4:1 5:-0.33333333 6:1 7:-1 8:-1 9:-0.6 10:-1 11:-1 12:-1 13:1 14:-1 15:-0.8 16:1 17:1 
-26.90868528811887 1:-1 2:-1 3:-1 4:0.46666667 5:1 6:1 7:-1 8:-1 9:-0.4 10:-1 11:-1 12:-1 13:1 14:-1 15:-0.6 16:1 17:1 
-26.90868528811887 1:-1 2:-1 3:-1 4:1 5:1 6:1 7:-1 8:-1 9:-0.6 10:1 11:1 12:1 13:-1 14:-1 15:1 16:1 17:-1 
-26.90868528811887 1:-1 2:-1 3:-1 4:0.066666667 5:1 6:1 7:-1 8:-1 9:-0.6 10:1 11:1 12:-1 13:1 14:-1 15:-0.8 16:1 17:1 
-26.90868528811887 1:-1 2:-1 3:-1 4:-0.73333333 5:1 6:1 7:-1 8:-1 9:-0.8 10:1 11:1 12:1 13:-1 14:-1 15:-0.2 16:1 17:-1 
-4.326859889464052 1:1 2:-1 3:-1 4:-0.46666667 5:1 6:1 7:-1 8:-1 9:0.4 10:-1 11:-1 12:-1 13:-1 14:-1 15:-0.8 16:-1 17:-1 
-26.90868528811887 1:-1 2:-1 3:-1 4:1 5:1 6:1 7:-1 8:-1 9:-0.4 10:-1 11:-1 12:-1 13:-1 14:-1 15:-0.8 16:-1 17:-1 
-6.015722365340918 1:-1 2:-1 3:-1 4:0.6 5:0.73333333 6:-1 7:1 8:-1 9:-0.4 10:1 11:1 12:-1 13:-1 14:-1 15:-0.8 16:-1 17:-1 
-4.129953117769853 1:-1 2:-1 3:-1 4:-0.6 5:0.2 6:-1 7:1 8:-1 9:-0.8 10:-1 11:-1 12:-1 13:1 14:-1 15:-0.8 16:1 17:1 
-0.7411903950062689 1:-1 2:-1 3:-1 4:-0.2 5:1 6:-1 7:1 8:-1 9:0.2 10:1 11:-1 12:-1 13:1 14:-1 15:-0.4 16:1 17:1 
-26.90868528811887 1:-1 2:-1 3:-1 4:1 5:1 6:-1 7:1 8:-1 9:-0.8 10:1 11:1 12:1 13:-1 14:-1 15:0 16:1 17:-1 
-26.90868528811887 1:-1 2:-1 3:-1 4:1 5:-0.6 6:-1 7:1 8:-1 9:-0.2 10:1 11:-1 12:-1 13:1 14:-1 15:-0.8 16:1 17:1 
-26.90868528811887 1:-1 2:-1 3:-1 4:-0.73333333 5:1 6:-1 7:1 8:-1 9:-0.8 10:1 11:1 12:1 13:-1 14:-1 15:-0.4 16:1 17:-1 
-1.650581248020796 1:-1 2:1 3:-1 4:-0.46666667 5:0.46666667 6:1 7:-1 8:-1 9:-0.4 10:-1 11:-1 12:-1 13:1 14:-1 15:-0.8 16:1 17:1 
-9.674550923823722 1:-1 2:1 3:-1 4:-0.46666667 5:1 6:1 7:-1 8:-1 9:-0.4 10:-1 11:-1 12:-1 13:1 14:-1 15:-0.8 16:1 17:1 
-26.90868528811887 1:-1 2:-1 3:-1 4:-0.73333333 5:1 6:-1 7:-1 8:1 9:-0.6 10:-1 11:-1 12:1 13:-1 14:-1 15:-0.4 16:1 17:-1 
-1.272768701043629 1:-1 2:-1 3:-1 4:1 5:-0.86666667 6:1 7:-1 8:-1 9:-0.4 10:-1 11:-1 12:1 13:1 14:1 15:1 16:1 17:1 
-3.92980091399644 1:-1 2:-1 3:-1 4:1 5:1 6:-1 7:1 8:-1 9:-0.4 10:1 11:1 12:-1 13:1 14:-1 15:0.2 16:1 17:-1 
-4.642179647745078 1:-1 2:-1 3:-1 4:-0.6 5:-0.33333333 6:-1 7:1 8:-1 9:-0.8 10:-1 11:-1 12:1 13:-1 14:-1 15:0.6 16:1 17:-1 
-25.42853454860754 1:-1 2:-1 3:-1 4:-0.46666667 5:1 6:-1 7:-1 8:1 9:-0.6 10:-1 11:-1 12:-1 13:1 14:-1 15:-0.8 16:1 17:1 
-26.90868528811887 1:-1 2:-1 3:-1 4:-0.46666667 5:1 6:-1 7:-1 8:1 9:-0.6 10:-1 11:-1 12:-1 13:1 14:-1 15:-0.8 16:1 17:1 
-11.46591761016921 1:-1 2:-1 3:-1 4:-0.73333333 5:1 6:1 7:-1 8:-1 9:-0.8 10:1 11:1 12:1 13:-1 14:-1 15:-0.6 16:1 17:-1 
-3.110869596235465 1:-1 2:-1 3:-1 4:-0.73333333 5:0.066666667 6:-1 7:-1 8:1 9:-0.4 10:-1 11:-1 12:-1 13:1 14:-1 15:-0.8 16:1 17:1 
-26.90868528811887 1:-1 2:-1 3:-1 4:-0.73333333 5:1 6:-1 7:1 8:-1 9:-0.8 10:1 11:1 12:1 13:-1 14:-1 15:-0.2 16:1 17:-1 
-26.90868528811887 1:-1 2:-1 3:-1 4:-0.73333333 5:0.73333333 6:-1 7:1 8:-1 9:-0.8 10:1 11:1 12:-1 13:1 14:-1 15:-0.8 16:1 17:1 
-26.90868528811887 1:-1 2:-1 3:-1 4:-0.73333333 5:1 6:-1 7:1 8:-1 9:-0.8 10:1 11:1 12:-1 13:1 14:-1 15:-0.8 16:1 17:1 
-4.667301492167939 1:-1 2:-1 3:-1 4:-0.86666667 5:0.33333333 6:-1 7:-1 8:-1 9:-0.8 10:-1 11:-1 12:-1 13:1 14:-1 15:-0.8 16:1 17:1 
-1.896957345729974 1:-1 2:1 3:-1 4:1 5:1 6:1 7:-1 8:-1 9:-0.6 10:-1 11:-1 12:1 13:-1 14:-1 15:-0.4 16:1 17:-1 
-26.90868528811887 1:-1 2:-1 3:-1 4:1 5:-0.066666667 6:1 7:-1 8:-1 9:0 10:-1 11:-1 12:-1 13:1 14:-1 15:-0.8 16:1 17:1 
-2.458824979057112 1:-1 2:-1 3:-1 4:1 5:1 6:-1 7:1 8:-1 9:-0.4 10:1 11:-1 12:-1 13:1 14:-1 15:-0.8 16:1 17:1 
-14.10220158445589 1:-1 2:-1 3:-1 4:1 5:-0.066666667 6:-1 7:1 8:-1 9:0 10:1 11:-1 12:-1 13:1 14:-1 15:-0.8 16:1 17:1 
-26.90868528811887 1:-1 2:1 3:-1 4:0.86666667 5:0.46666667 6:1 7:-1 8:-1 9:-0.6 10:-1 11:-1 12:-1 13:1 14:-1 15:-0.8 16:1 17:1 
-26.90868528811887 1:-1 2:-1 3:-1 4:-0.6 5:1 6:-1 7:1 8:-1 9:-0.8 10:-1 11:-1 12:-1 13:-1 14:-1 15:-0.8 16:-1 17:-1 
-26.90868528811887 1:-1 2:-1 3:-1 4:-0.73333333 5:1 6:-1 7:-1 8:-1 9:-0.8 10:-1 11:-1 12:-1 13:1 14:-1 15:-0.4 16:1 17:1 
-26.90868528811887 1:1 2:-1 3:-1 4:-0.2 5:1 6:1 7:-1 8:-1 9:-0.8 10:-1 11:-1 12:1 13:-1 14:-1 15:0.2 16:1 17:-1 
-26.90868528811887 1:-1 2:-1 3:-1 4:1 5:-0.33333333 6:-1 7:-1 8:-1 9:-0.8 10:-1 11:-1 12:-1 13:-1 14:-1 15:-0.8 16:-1 17:-1 
-26.90868528811887 1:-1 2:-1 3:-1 4:-0.86666667 5:1 6:-1 7:-1 8:-1 9:-0.8 10:-1 11:-1 12:-1 13:1 14:-1 15:-0.6 16:1 17:1 
-26.90868528811887 1:-1 2:1 3:-1 4:1 5:1 6:1 7:-1 8:-1 9:-0.6 10:-1 11:-1 12:-1 13:1 14:-1 15:-0.6 16:1 17:1 
-26.90868528811887 1:-1 2:-1 3:-1 4:-0.86666667 5:-0.73333333 6:-1 7:-1 8:-1 9:-0.8 10:-1 11:-1 12:-1 13:-1 14:1 15:-0.8 16:-1 17:-1 
-2.299892011959862 1:-1 2:-1 3:-1 4:-0.6 5:0.2 6:-1 7:1 8:-1 9:-0.8 10:-1 11:-1 12:-1 13:1 14:-1 15:-0.8 16:1 17:1 
-9.602836264346783 1:-1 2:-1 3:-1 4:1 5:1 6:-1 7:1 8:-1 9:-0.8 10:1 11:1 12:-1 13:1 14:-1 15:-0.8 16:1 17:1 
-26.90868528811887 1:-1 2:-1 3:-1 4:0.2 5:1 6:1 7:-1 8:-1 9:-0.8 10:-1 11:-1 12:-1 13:1 14:-1 15:-0.8 16:1 17:1 
-5.297592800307943 1:-1 2:-1 3:-1 4:1 5:1 6:1 7:-1 8:-1 9:-0.6 10:1 11:1 12:-1 13:1 14:-1 15:-0.8 16:1 17:1 
-9.66636379264577 1:-1 2:-1 3:-1 4:-0.33333333 5:1 6:-1 7:1 8:-1 9:-0.4 10:1 11:1 12:-1 13:1 14:-1 15:-0.8 16:1 17:1 
-26.90868528811887 1:-1 2:-1 3:-1 4:-0.46666667 5:1 6:-1 7:-1 8:1 9:-0.6 10:-1 11:-1 12:1 13:-1 14:-1 15:0.4 16:1 17:-1 
-26.90868528811887 1:-1 2:-1 3:-1 4:-0.73333333 5:1 6:-1 7:-1 8:1 9:-0.4 10:-1 11:-1 12:-1 13:-1 14:-1 15:-0.8 16:-1 17:-1 
-26.90868528811887 1:-1 2:-1 3:-1 4:1 5:1 6:1 7:-1 8:-1 9:-0.8 10:1 11:1 12:1 13:-1 14:-1 15:-0.6 16:1 17:-1 
-26.90868528811887 1:-1 2:-1 3:-1 4:1 5:1 6:1 7:-1 8:-1 9:-0.8 10:1 11:1 12:1 13:-1 14:-1 15:-0.2 16:1 17:-1 
-26.90868528811887 1:-1 2:-1 3:-1 4:1 5:1 6:1 7:-1 8:-1 9:-0.8 10:1 11:1 12:1 13:-1 14:-1 15:0.6 16:1 17:-1 
-26.90868528811887 1:-1 2:-1 3:-1 4:1 5:1 6:1 7:-1 8:-1 9:-0.8 10:1 11:1 12:1 13:-1 14:-1 15:0.6 16:1 17:-1 
-26.90868528811887 1:-1 2:-1 3:-1 4:1 5:1 6:1 7:-1 8:-1 9:-0.6 10:1 11:1 12:1 13:-1 14:-1 15:0.4 16:1 17:-1 
-16.81098508216599 1:1 2:-1 3:-1 4:1 5:-0.2 6:1 7:-1 8:-1 9:1 10:-1 11:-1 12:-1 13:-1 14:-1 15:-0.8 16:-1 17:-1 
-26.90868528811887 1:-1 2:-1 3:-1 4:1 5:1 6:1 7:-1 8:-1 9:-0.2 10:1 11:-1 12:1 13:-1 14:-1 15:-0.2 16:1 17:-1 
-26.90868528811887 1:-1 2:-1 3:-1 4:1 5:1 6:1 7:-1 8:-1 9:-0.2 10:-1 11:-1 12:-1 13:-1 14:-1 15:-0.8 16:-1 17:-1 
-1.952244530010111 1:-1 2:-1 3:-1 4:1 5:-0.86666667 6:-1 7:1 8:-1 9:-0.8 10:1 11:1 12:1 13:1 14:1 15:1 16:1 17:1 
-5.970938714912011 1:-1 2:-1 3:-1 4:0.73333333 5:1 6:-1 7:1 8:-1 9:-0.6 10:1 11:-1 12:1 13:-1 14:-1 15:0.4 16:1 17:-1 
-26.90868528811887 1:-1 2:-1 3:-1 4:-0.73333333 5:1 6:1 7:-1 8:-1 9:-0.8 10:-1 11:-1 12:1 13:-1 14:-1 15:-0.4 16:1 17:-1 
-26.90868528811887 1:-1 2:-1 3:-1 4:1 5:-0.73333333 6:-1 7:-1 8:1 9:-0.2 10:-1 11:-1 12:-1 13:-1 14:1 15:-0.8 16:-1 17:-1 
-26.90868528811887 1:-1 2:-1 3:-1 4:1 5:-0.73333333 6:-1 7:-1 8:1 9:-0.2 10:-1 11:-1 12:-1 13:-1 14:1 15:-0.8 16:-1 17:-1 
-17.69361002826362 1:-1 2:-1 3:-1 4:1 5:-0.73333333 6:-1 7:-1 8:1 9:-0.2 10:-1 11:-1 12:-1 13:-1 14:1 15:-0.8 16:-1 17:-1 
-26.90868528811887 1:-1 2:-1 3:-1 4:-0.73333333 5:-0.73333333 6:-1 7:-1 8:1 9:-0.2 10:-1 11:-1 12:-1 13:-1 14:1 15:-0.6 16:-1 17:-1 
-26.90868528811887 1:-1 2:-1 3:-1 4:1 5:-0.73333333 6:-1 7:-1 8:1 9:-0.2 10:-1 11:-1 12:-1 13:-1 14:1 15:-0.8 16:-1 17:-1 
-26.90868528811887 1:-1 2:-1 3:-1 4:-0.73333333 5:0.73333333 6:1 7:-1 8:-1 9:-0.6 10:-1 11:-1 12:-1 13:1 14:-1 15:-0.8 16:1 17:1 
-24.57977457703714 1:-1 2:-1 3:-1 4:-0.86666667 5:1 6:-1 7:-1 8:-1 9:-0.8 10:-1 11:-1 12:1 13:-1 14:-1 15:1 16:1 17:-1 
-2.904771696377164 1:1 2:-1 3:-1 4:-0.6 5:-0.6 6:1 7:-1 8:-1 9:-0.2 10:1 11:-1 12:1 13:-1 14:-1 15:-0.8 16:1 17:1 
-0.2877266885608156 1:-1 2:-1 3:-1 4:-0.73333333 5:-0.86666667 6:1 7:-1 8:-1 9:-0.8 10:1 11:1 12:1 13:1 14:1 15:1 16:1 17:1 
-4.208984553994715 1:-1 2:-1 3:-1 4:1 5:1 6:-1 7:-1 8:1 9:-0.8 10:-1 11:-1 12:-1 13:-1 14:-1 15:-0.8 16:-1 17:-1 
-17.43740771826167 1:-1 2:-1 3:-1 4:1 5:1 6:1 7:-1 8:-1 9:-0.8 10:1 11:1 12:1 13:-1 14:-1 15:-0.8 16:1 17:1 
-0.04847159342587067 1:1 2:-1 3:-1 4:1 5:-0.86666667 6:1 7:-1 8:-1 9:0 10:1 11:-1 12:1 13:1 14:1 15:1 16:1 17:1 
-26.90868528811887 1:-1 2:-1 3:-1 4:-0.73333333 5:1 6:1 7:-1 8:-1 9:-0.8 10:1 11:1 12:1 13:-1 14:-1 15:-0.8 16:1 17:1 
-26.90868528811887 1:-1 2:-1 3:-1 4:-0.73333333 5:0.46666667 6:-1 7:-1 8:1 9:-0.6 10:-1 11:-1 12:1 13:-1 14:-1 15:1 16:1 17:-1 
-20.9043813862475 1:-1 2:-1 3:-1 4:1 5:-0.6 6:-1 7:-1 8:1 9:-0.6 10:-1 11:-1 12:1 13:-1 14:-1 15:-0.8 16:1 17:1 
-26.90868528811887 1:-1 2:-1 3:-1 4:1 5:0.86666667 6:1 7:-1 8:-1 9:-0.6 10:1 11:1 12:1 13:-1 14:-1 15:1 16:1 17:-1 
-26.90868528811887 1:-1 2:-1 3:-1 4:1 5:0.46666667 6:-1 7:1 8:-1 9:-0.2 10:1 11:-1 12:-1 13:-1 14:-1 15:-0.8 16:-1 17:-1 
-26.90868528811887 1:-1 2:1 3:-1 4:-0.2 5:0.33333333 6:1 7:-1 8:-1 9:0 10:-1 11:-1 12:-1 13:-1 14:-1 15:-0.8 16:-1 17:-1 
-26.90868528811887 1:-1 2:-1 3:-1 4:0.2 5:0.6 6:-1 7:1 8:-1 9:1 10:1 11:-1 12:-1 13:-1 14:-1 15:-0.8 16:-1 17:-1 
-26.90868528811887 1:-1 2:-1 3:-1 4:-0.73333333 5:1 6:1 7:-1 8:-1 9:-0.6 10:-1 11:-1 12:1 13:-1 14:-1 15:-0.2 16:1 17:-1 
-6.539021816537527 1:-1 2:-1 3:1 4:1 5:-0.46666667 6:1 7:-1 8:-1 9:0.2 10:1 11:-1 12:1 13:-1 14:-1 15:0.6 16:1 17:-1 
-13.37645299040042 1:-1 2:-1 3:-1 4:-0.6 5:-0.46666667 6:1 7:-1 8:-1 9:-0.4 10:-1 11:-1 12:1 13:-1 14:-1 15:1 16:1 17:-1 
-26.90868528811887 1:-1 2:-1 3:-1 4:-0.73333333 5:1 6:1 7:-1 8:-1 9:-0.8 10:1 11:1 12:1 13:-1 14:-1 15:1 16:1 17:-1 
-26.90868528811887 1:-1 2:-1 3:-1 4:-0.33333333 5:0.2 6:1 7:-1 8:-1 9:-0.6 10:1 11:1 12:1 13:-1 14:-1 15:0.2 16:1 17:1 
-14.25672927192379 1:-1 2:-1 3:-1 4:-0.6 5:0.2 6:1 7:-1 8:-1 9:-0.4 10:-1 11:-1 12:1 13:-1 14:-1 15:0.6 16:1 17:1 
-8.866527647902682 1:1 2:-1 3:-1 4:0.066666667 5:-0.2 6:1 7:-1 8:-1 9:1 10:-1 11:-1 12:-1 13:-1 14:-1 15:-0.8 16:-1 17:-1 
-26.90868528811887 1:-1 2:-1 3:-1 4:-0.2 5:-0.2 6:-1 7:-1 8:-1 9:-0.8 10:-1 11:-1 12:-1 13:-1 14:-1 15:-0.8 16:-1 17:-1 
-26.90868528811887 1:-1 2:-1 3:-1 4:-0.73333333 5:1 6:1 7:-1 8:-1 9:-0.6 10:-1 11:-1 12:-1 13:1 14:-1 15:-0.8 16:1 17:1 
-26.90868528811887 1:-1 2:-1 3:-1 4:-0.73333333 5:1 6:1 7:-1 8:-1 9:-0.8 10:-1 11:-1 12:-1 13:-1 14:-1 15:-0.8 16:-1 17:-1 
-26.90868528811887 1:-1 2:-1 3:-1 4:1 5:1 6:1 7:-1 8:-1 9:-0.6 10:1 11:1 12:1 13:-1 14:-1 15:0.2 16:1 17:-1 
